digraph Tree {
0 [label="Sex <= 0.5000\ngini = 0.480319356147\nsamples = 499", shape="box"] ;
1 [label="Pclass <= 2.5000\ngini = 0.383105905084\nsamples = 182", shape="box"] ;
0 -> 1 ;
3 [label="gini = 0.0891\nsamples = 107\nvalue = [   5.  102.]", shape="box"] ;
1 -> 3 ;
4 [label="Fare <= 20.8000\ngini = 0.4928\nsamples = 75", shape="box"] ;
1 -> 4 ;
11 [label="gini = 0.4959\nsamples = 55\nvalue = [ 25.  30.]", shape="box"] ;
4 -> 11 ;
12 [label="gini = 0.2550\nsamples = 20\nvalue = [ 17.   3.]", shape="box"] ;
4 -> 12 ;
2 [label="Age <= 6.5000\ngini = 0.326005831484\nsamples = 317", shape="box"] ;
0 -> 2 ;
5 [label="SibSp <= 2.5000\ngini = 0.401234567901\nsamples = 18", shape="box"] ;
2 -> 5 ;
9 [label="gini = 0.0000\nsamples = 13\nvalue = [  0.  13.]", shape="box"] ;
5 -> 9 ;
10 [label="gini = 0.0000\nsamples = 5\nvalue = [ 5.  0.]", shape="box"] ;
5 -> 10 ;
6 [label="Pclass <= 1.5000\ngini = 0.287334593573\nsamples = 299", shape="box"] ;
2 -> 6 ;
7 [label="gini = 0.4734\nsamples = 65\nvalue = [ 40.  25.]", shape="box"] ;
6 -> 7 ;
8 [label="gini = 0.2041\nsamples = 234\nvalue = [ 207.   27.]", shape="box"] ;
6 -> 8 ;
}